{"layer1_weights": [[-0.9577499782232334, 1.0258915430649533, 0.162911346596575, -0.33529663680537153, -1.0846722200682777, -0.326973171980364, -0.6684536966457607, 0.8586639129776398], [0.1616642650766002, -0.10320852035494343, -0.4665222693103237, 0.8679908358186633, 0.11769468811520208, -0.6048427234548884, -0.254471191775156, -0.8959884199030012], [0.29637451816911553, -0.46183666627762626, 0.12879652058168586, 0.17810402184853805, 0.7215995923901888, -0.7117579716713135, -0.2119458845639848, -0.6642159671881936]], "layer1_bias": [0.76618778019689, 0.5947771770797031, -0.6816072607097711, 0.714765746442743, 0.7256971821090114, -0.4828134959274213, -0.25714339669414304, -0.10576406838309613], "layer2_weights": [[-0.008501486996053607, 0.6059252990640035, -0.17817789970618111, 1.4294510609046345], [-1.8929165480772054e-06, -0.6267798529790931, 0.6947147795681727, -0.17582503106087594], [-0.0030406878583712485, 0.01855841871359087, -0.41952755043979295, 0.4949001513963072], [-3.3703175065512135e-05, -0.02975379257169984, -0.5307413998292532, 0.5525692704253682], [5.421754406622728e-23, -0.6328429488996921, 0.21061537923175752, 0.9090679056205682], [0.009119159021607079, 0.5848636314553608, 0.9765079412873069, 0.2777149956936058], [-0.0057730766384961, -0.40227957954285604, -0.23873043760460808, -0.35835420379019306], [-4.7899861001414525e-11, -0.29688880202843637, 0.9396249576193842, -0.37069253281727993]], "layer2_bias": [-0.309805387448018, 0.06381685818799047, -0.25235451068510584, 0.9345269032966262], "layer3_weights": [[-0.08139664852772856], [1.0776463753764438], [1.1948713242731608], [-1.2630035930683976]], "layer3_bias": [-1.5063932972431657]}